<?xml version="1.0" encoding="UTF-8"?>
<PMML xmlns="http://www.dmg.org/PMML-4_4" version="4.4.1">
    <Header copyright="Copyright (c) 2021 Software AG" description="Default description">
        <Application name="Nyoka" version="5.4.0"/>
        <Timestamp>2023-07-23 06:39:13.911766</Timestamp>
    </Header>
    <DataDictionary numberOfFields="18">
        <DataField name="income_bins" optype="continuous" dataType="double"/>
        <DataField name="age_bins" optype="continuous" dataType="double"/>
        <DataField name="tot_cust_years" optype="continuous" dataType="double"/>
        <DataField name="tot_children" optype="continuous" dataType="double"/>
        <DataField name="separated_ind" optype="continuous" dataType="double"/>
        <DataField name="il_resident_ind" optype="continuous" dataType="double"/>
        <DataField name="az_resident_ind" optype="continuous" dataType="double"/>
        <DataField name="oh_resident_ind" optype="continuous" dataType="double"/>
        <DataField name="ck_avg_tran_amt" optype="continuous" dataType="double"/>
        <DataField name="sv_avg_tran_amt" optype="continuous" dataType="double"/>
        <DataField name="sv_acct_ind" optype="continuous" dataType="double"/>
        <DataField name="ck_avg_bal" optype="continuous" dataType="double"/>
        <DataField name="sv_avg_bal" optype="continuous" dataType="double"/>
        <DataField name="q1_trans_cnt" optype="continuous" dataType="double"/>
        <DataField name="q2_trans_cnt" optype="continuous" dataType="double"/>
        <DataField name="q3_trans_cnt" optype="continuous" dataType="double"/>
        <DataField name="q4_trans_cnt" optype="continuous" dataType="double"/>
        <DataField name="cc_acct_ind" optype="categorical" dataType="integer">
            <Value value="0"/>
            <Value value="1"/>
        </DataField>
    </DataDictionary>
    <MiningModel modelName="XGBoostModel" functionName="classification">
        <MiningSchema>
            <MiningField name="income_bins" usageType="active" optype="continuous"/>
            <MiningField name="age_bins" usageType="active" optype="continuous"/>
            <MiningField name="tot_cust_years" usageType="active" optype="continuous"/>
            <MiningField name="tot_children" usageType="active" optype="continuous"/>
            <MiningField name="separated_ind" usageType="active" optype="continuous"/>
            <MiningField name="il_resident_ind" usageType="active" optype="continuous"/>
            <MiningField name="az_resident_ind" usageType="active" optype="continuous"/>
            <MiningField name="oh_resident_ind" usageType="active" optype="continuous"/>
            <MiningField name="ck_avg_tran_amt" usageType="active" optype="continuous"/>
            <MiningField name="sv_avg_tran_amt" usageType="active" optype="continuous"/>
            <MiningField name="sv_acct_ind" usageType="active" optype="continuous"/>
            <MiningField name="ck_avg_bal" usageType="active" optype="continuous"/>
            <MiningField name="sv_avg_bal" usageType="active" optype="continuous"/>
            <MiningField name="q1_trans_cnt" usageType="active" optype="continuous"/>
            <MiningField name="q2_trans_cnt" usageType="active" optype="continuous"/>
            <MiningField name="q3_trans_cnt" usageType="active" optype="continuous"/>
            <MiningField name="q4_trans_cnt" usageType="active" optype="continuous"/>
            <MiningField name="cc_acct_ind" usageType="target" optype="categorical"/>
        </MiningSchema>
        <Output>
            <OutputField name="cc_acct_ind_probability_0" optype="continuous" dataType="double" feature="probability" value="0"/>
            <OutputField name="cc_acct_ind_probability_1" optype="continuous" dataType="double" feature="probability" value="1"/>
            <OutputField name="predicted_cc_acct_ind" optype="categorical" dataType="integer" feature="predictedValue"/>
        </Output>
        <Segmentation multipleModelMethod="modelChain" missingThreshold="1">
            <Segment id="1" weight="1">
                <True/>
                <MiningModel modelName="MiningModel" functionName="regression">
                    <MiningSchema>
                        <MiningField name="income_bins" usageType="active"/>
                        <MiningField name="age_bins" usageType="active"/>
                        <MiningField name="tot_cust_years" usageType="active"/>
                        <MiningField name="tot_children" usageType="active"/>
                        <MiningField name="separated_ind" usageType="active"/>
                        <MiningField name="il_resident_ind" usageType="active"/>
                        <MiningField name="az_resident_ind" usageType="active"/>
                        <MiningField name="oh_resident_ind" usageType="active"/>
                        <MiningField name="ck_avg_tran_amt" usageType="active"/>
                        <MiningField name="sv_avg_tran_amt" usageType="active"/>
                        <MiningField name="sv_acct_ind" usageType="active"/>
                        <MiningField name="ck_avg_bal" usageType="active"/>
                        <MiningField name="sv_avg_bal" usageType="active"/>
                        <MiningField name="q1_trans_cnt" usageType="active"/>
                        <MiningField name="q2_trans_cnt" usageType="active"/>
                        <MiningField name="q3_trans_cnt" usageType="active"/>
                        <MiningField name="q4_trans_cnt" usageType="active"/>
                    </MiningSchema>
                    <Output>
                        <OutputField name="xgbValue" optype="continuous" dataType="float" feature="predictedValue"/>
                    </Output>
                    <Segmentation multipleModelMethod="sum" missingThreshold="1">
                        <Segment id="1" weight="1">
                            <True/>
                            <TreeModel modelName="DecisionTreeModel" functionName="regression" missingValuePenalty="1.0" noTrueChildStrategy="returnLastPrediction">
                                <MiningSchema>
                                    <MiningField name="income_bins" usageType="active"/>
                                    <MiningField name="age_bins" usageType="active"/>
                                    <MiningField name="tot_cust_years" usageType="active"/>
                                    <MiningField name="tot_children" usageType="active"/>
                                    <MiningField name="separated_ind" usageType="active"/>
                                    <MiningField name="il_resident_ind" usageType="active"/>
                                    <MiningField name="az_resident_ind" usageType="active"/>
                                    <MiningField name="oh_resident_ind" usageType="active"/>
                                    <MiningField name="ck_avg_tran_amt" usageType="active"/>
                                    <MiningField name="sv_avg_tran_amt" usageType="active"/>
                                    <MiningField name="sv_acct_ind" usageType="active"/>
                                    <MiningField name="ck_avg_bal" usageType="active"/>
                                    <MiningField name="sv_avg_bal" usageType="active"/>
                                    <MiningField name="q1_trans_cnt" usageType="active"/>
                                    <MiningField name="q2_trans_cnt" usageType="active"/>
                                    <MiningField name="q3_trans_cnt" usageType="active"/>
                                    <MiningField name="q4_trans_cnt" usageType="active"/>
                                </MiningSchema>
                                <Node>
                                    <True/>
                                    <Node>
                                        <SimplePredicate field="q4_trans_cnt" operator="lessThan" value="13.5000000000000000"/>
                                        <Node>
                                            <SimplePredicate field="q1_trans_cnt" operator="lessThan" value="106.5000000000000000"/>
                                            <Node score="-0.577981651">
                                                <SimplePredicate field="q4_trans_cnt" operator="lessThan" value="3.5000000000000000"/>
                                            </Node>
                                            <Node>
                                                <SimplePredicate field="q4_trans_cnt" operator="greaterOrEqual" value="3.5000000000000000"/>
                                                <Node>
                                                    <SimplePredicate field="sv_acct_ind" operator="lessThan" value="1.0000000000000000"/>
                                                    <Node score="-0.300000012">
                                                        <SimplePredicate field="ck_avg_tran_amt" operator="lessThan" value="-1.7297916400000000"/>
                                                    </Node>
                                                    <Node score="0.440000027">
                                                        <SimplePredicate field="ck_avg_tran_amt" operator="greaterOrEqual" value="-1.7297916400000000"/>
                                                    </Node>
                                                </Node>
                                                <Node>
                                                    <SimplePredicate field="sv_acct_ind" operator="greaterOrEqual" value="1.0000000000000000"/>
                                                    <Node score="-0.487500012">
                                                        <SimplePredicate field="income_bins" operator="lessThan" value="30.0000000000000000"/>
                                                    </Node>
                                                    <Node score="0.150000006">
                                                        <SimplePredicate field="income_bins" operator="greaterOrEqual" value="30.0000000000000000"/>
                                                    </Node>
                                                </Node>
                                            </Node>
                                        </Node>
                                        <Node>
                                            <SimplePredicate field="q1_trans_cnt" operator="greaterOrEqual" value="106.5000000000000000"/>
                                            <Node score="0.428571463">
                                                <SimplePredicate field="sv_avg_bal" operator="lessThan" value="204.3152469999999994"/>
                                            </Node>
                                            <Node score="-0.200000018">
                                                <SimplePredicate field="sv_avg_bal" operator="greaterOrEqual" value="204.3152469999999994"/>
                                            </Node>
                                        </Node>
                                    </Node>
                                    <Node>
                                        <SimplePredicate field="q4_trans_cnt" operator="greaterOrEqual" value="13.5000000000000000"/>
                                        <Node>
                                            <SimplePredicate field="q2_trans_cnt" operator="lessThan" value="17.0000000000000000"/>
                                            <Node>
                                                <SimplePredicate field="sv_acct_ind" operator="lessThan" value="1.0000000000000000"/>
                                                <Node score="-0.120000005">
                                                    <SimplePredicate field="income_bins" operator="lessThan" value="8.0000000000000000"/>
                                                </Node>
                                                <Node>
                                                    <SimplePredicate field="income_bins" operator="greaterOrEqual" value="8.0000000000000000"/>
                                                    <Node score="0.0545454584">
                                                        <SimplePredicate field="q1_trans_cnt" operator="lessThan" value="4.5000000000000000"/>
                                                    </Node>
                                                    <Node score="0.485714316">
                                                        <SimplePredicate field="q1_trans_cnt" operator="greaterOrEqual" value="4.5000000000000000"/>
                                                    </Node>
                                                </Node>
                                            </Node>
                                            <Node>
                                                <SimplePredicate field="sv_acct_ind" operator="greaterOrEqual" value="1.0000000000000000"/>
                                                <Node score="-0.428571463">
                                                    <SimplePredicate field="q4_trans_cnt" operator="lessThan" value="37.0000000000000000"/>
                                                </Node>
                                                <Node>
                                                    <SimplePredicate field="q4_trans_cnt" operator="greaterOrEqual" value="37.0000000000000000"/>
                                                    <Node score="0.360000014">
                                                        <SimplePredicate field="ck_avg_bal" operator="lessThan" value="200.9573059999999884"/>
                                                    </Node>
                                                    <Node score="-0.120000005">
                                                        <SimplePredicate field="ck_avg_bal" operator="greaterOrEqual" value="200.9573059999999884"/>
                                                    </Node>
                                                </Node>
                                            </Node>
                                        </Node>
                                        <Node>
                                            <SimplePredicate field="q2_trans_cnt" operator="greaterOrEqual" value="17.0000000000000000"/>
                                            <Node>
                                                <SimplePredicate field="q4_trans_cnt" operator="lessThan" value="25.0000000000000000"/>
                                                <Node score="-0.323076963">
                                                    <SimplePredicate field="sv_avg_tran_amt" operator="lessThan" value="-0.1417985560000000"/>
                                                </Node>
                                                <Node>
                                                    <SimplePredicate field="sv_avg_tran_amt" operator="greaterOrEqual" value="-0.1417985560000000"/>
                                                    <Node score="-0.150000006">
                                                        <SimplePredicate field="income_bins" operator="lessThan" value="6.0000000000000000"/>
                                                    </Node>
                                                    <Node>
                                                        <SimplePredicate field="income_bins" operator="greaterOrEqual" value="6.0000000000000000"/>
                                                        <Node score="0.120000005">
                                                            <SimplePredicate field="q1_trans_cnt" operator="lessThan" value="25.5000000000000000"/>
                                                        </Node>
                                                        <Node score="0.5">
                                                            <SimplePredicate field="q1_trans_cnt" operator="greaterOrEqual" value="25.5000000000000000"/>
                                                        </Node>
                                                    </Node>
                                                </Node>
                                            </Node>
                                            <Node>
                                                <SimplePredicate field="q4_trans_cnt" operator="greaterOrEqual" value="25.0000000000000000"/>
                                                <Node>
                                                    <SimplePredicate field="sv_avg_bal" operator="lessThan" value="1521.1701700000000983"/>
                                                    <Node>
                                                        <SimplePredicate field="q1_trans_cnt" operator="lessThan" value="7.5000000000000000"/>
                                                        <Node score="0">
                                                            <SimplePredicate field="income_bins" operator="lessThan" value="20.0000000000000000"/>
                                                        </Node>
                                                        <Node score="0.333333373">
                                                            <SimplePredicate field="income_bins" operator="greaterOrEqual" value="20.0000000000000000"/>
                                                        </Node>
                                                    </Node>
                                                    <Node score="0.570149302">
                                                        <SimplePredicate field="q1_trans_cnt" operator="greaterOrEqual" value="7.5000000000000000"/>
                                                    </Node>
                                                </Node>
                                                <Node>
                                                    <SimplePredicate field="sv_avg_bal" operator="greaterOrEqual" value="1521.1701700000000983"/>
                                                    <Node score="-0.120000005">
                                                        <SimplePredicate field="income_bins" operator="lessThan" value="22.0000000000000000"/>
                                                    </Node>
                                                    <Node score="0.456">
                                                        <SimplePredicate field="income_bins" operator="greaterOrEqual" value="22.0000000000000000"/>
                                                    </Node>
                                                </Node>
                                            </Node>
                                        </Node>
                                    </Node>
                                </Node>
                            </TreeModel>
                        </Segment>
                        <Segment id="2" weight="1">
                            <True/>
                            <TreeModel modelName="DecisionTreeModel" functionName="regression" missingValuePenalty="1.0" noTrueChildStrategy="returnLastPrediction">
                                <MiningSchema>
                                    <MiningField name="income_bins" usageType="active"/>
                                    <MiningField name="age_bins" usageType="active"/>
                                    <MiningField name="tot_cust_years" usageType="active"/>
                                    <MiningField name="tot_children" usageType="active"/>
                                    <MiningField name="separated_ind" usageType="active"/>
                                    <MiningField name="il_resident_ind" usageType="active"/>
                                    <MiningField name="az_resident_ind" usageType="active"/>
                                    <MiningField name="oh_resident_ind" usageType="active"/>
                                    <MiningField name="ck_avg_tran_amt" usageType="active"/>
                                    <MiningField name="sv_avg_tran_amt" usageType="active"/>
                                    <MiningField name="sv_acct_ind" usageType="active"/>
                                    <MiningField name="ck_avg_bal" usageType="active"/>
                                    <MiningField name="sv_avg_bal" usageType="active"/>
                                    <MiningField name="q1_trans_cnt" usageType="active"/>
                                    <MiningField name="q2_trans_cnt" usageType="active"/>
                                    <MiningField name="q3_trans_cnt" usageType="active"/>
                                    <MiningField name="q4_trans_cnt" usageType="active"/>
                                </MiningSchema>
                                <Node>
                                    <True/>
                                    <Node>
                                        <SimplePredicate field="q4_trans_cnt" operator="lessThan" value="13.5000000000000000"/>
                                        <Node>
                                            <SimplePredicate field="q1_trans_cnt" operator="lessThan" value="106.5000000000000000"/>
                                            <Node score="-0.449706227">
                                                <SimplePredicate field="q4_trans_cnt" operator="lessThan" value="3.5000000000000000"/>
                                            </Node>
                                            <Node>
                                                <SimplePredicate field="q4_trans_cnt" operator="greaterOrEqual" value="3.5000000000000000"/>
                                                <Node>
                                                    <SimplePredicate field="sv_acct_ind" operator="lessThan" value="1.0000000000000000"/>
                                                    <Node score="0.274428874">
                                                        <SimplePredicate field="q3_trans_cnt" operator="lessThan" value="12.0000000000000000"/>
                                                    </Node>
                                                    <Node score="-0.0669509098">
                                                        <SimplePredicate field="q3_trans_cnt" operator="greaterOrEqual" value="12.0000000000000000"/>
                                                    </Node>
                                                </Node>
                                                <Node>
                                                    <SimplePredicate field="sv_acct_ind" operator="greaterOrEqual" value="1.0000000000000000"/>
                                                    <Node score="-0.386048287">
                                                        <SimplePredicate field="q1_trans_cnt" operator="lessThan" value="21.0000000000000000"/>
                                                    </Node>
                                                    <Node score="0.0495737344">
                                                        <SimplePredicate field="q1_trans_cnt" operator="greaterOrEqual" value="21.0000000000000000"/>
                                                    </Node>
                                                </Node>
                                            </Node>
                                        </Node>
                                        <Node>
                                            <SimplePredicate field="q1_trans_cnt" operator="greaterOrEqual" value="106.5000000000000000"/>
                                            <Node score="0.349227518">
                                                <SimplePredicate field="sv_avg_bal" operator="lessThan" value="204.3152469999999994"/>
                                            </Node>
                                            <Node score="-0.167702854">
                                                <SimplePredicate field="sv_avg_bal" operator="greaterOrEqual" value="204.3152469999999994"/>
                                            </Node>
                                        </Node>
                                    </Node>
                                    <Node>
                                        <SimplePredicate field="q4_trans_cnt" operator="greaterOrEqual" value="13.5000000000000000"/>
                                        <Node>
                                            <SimplePredicate field="q2_trans_cnt" operator="lessThan" value="17.0000000000000000"/>
                                            <Node>
                                                <SimplePredicate field="sv_avg_bal" operator="lessThan" value="272.8943790000000149"/>
                                                <Node score="-0.210674509">
                                                    <SimplePredicate field="income_bins" operator="lessThan" value="4.0000000000000000"/>
                                                </Node>
                                                <Node>
                                                    <SimplePredicate field="income_bins" operator="greaterOrEqual" value="4.0000000000000000"/>
                                                    <Node score="0.0429175347">
                                                        <SimplePredicate field="q1_trans_cnt" operator="lessThan" value="4.5000000000000000"/>
                                                    </Node>
                                                    <Node score="0.404521227">
                                                        <SimplePredicate field="q1_trans_cnt" operator="greaterOrEqual" value="4.5000000000000000"/>
                                                    </Node>
                                                </Node>
                                            </Node>
                                            <Node>
                                                <SimplePredicate field="sv_avg_bal" operator="greaterOrEqual" value="272.8943790000000149"/>
                                                <Node score="-0.330466181">
                                                    <SimplePredicate field="q4_trans_cnt" operator="lessThan" value="34.5000000000000000"/>
                                                </Node>
                                                <Node score="0.109891392">
                                                    <SimplePredicate field="q4_trans_cnt" operator="greaterOrEqual" value="34.5000000000000000"/>
                                                </Node>
                                            </Node>
                                        </Node>
                                        <Node>
                                            <SimplePredicate field="q2_trans_cnt" operator="greaterOrEqual" value="17.0000000000000000"/>
                                            <Node>
                                                <SimplePredicate field="q4_trans_cnt" operator="lessThan" value="25.0000000000000000"/>
                                                <Node score="-0.261191636">
                                                    <SimplePredicate field="sv_avg_tran_amt" operator="lessThan" value="-0.1417985560000000"/>
                                                </Node>
                                                <Node>
                                                    <SimplePredicate field="sv_avg_tran_amt" operator="greaterOrEqual" value="-0.1417985560000000"/>
                                                    <Node score="-0.0251947083">
                                                        <SimplePredicate field="income_bins" operator="lessThan" value="9.0000000000000000"/>
                                                    </Node>
                                                    <Node score="0.373445034">
                                                        <SimplePredicate field="income_bins" operator="greaterOrEqual" value="9.0000000000000000"/>
                                                    </Node>
                                                </Node>
                                            </Node>
                                            <Node>
                                                <SimplePredicate field="q4_trans_cnt" operator="greaterOrEqual" value="25.0000000000000000"/>
                                                <Node>
                                                    <SimplePredicate field="q1_trans_cnt" operator="lessThan" value="46.0000000000000000"/>
                                                    <Node>
                                                        <SimplePredicate field="q4_trans_cnt" operator="lessThan" value="55.0000000000000000"/>
                                                        <Node score="0.315776795">
                                                            <SimplePredicate field="ck_avg_bal" operator="lessThan" value="223.6671299999999860"/>
                                                        </Node>
                                                        <Node score="-0.15049386">
                                                            <SimplePredicate field="ck_avg_bal" operator="greaterOrEqual" value="223.6671299999999860"/>
                                                        </Node>
                                                    </Node>
                                                    <Node score="0.392460078">
                                                        <SimplePredicate field="q4_trans_cnt" operator="greaterOrEqual" value="55.0000000000000000"/>
                                                    </Node>
                                                </Node>
                                                <Node>
                                                    <SimplePredicate field="q1_trans_cnt" operator="greaterOrEqual" value="46.0000000000000000"/>
                                                    <Node score="0.46087715">
                                                        <SimplePredicate field="income_bins" operator="lessThan" value="47.0000000000000000"/>
                                                    </Node>
                                                    <Node score="0.16140312">
                                                        <SimplePredicate field="income_bins" operator="greaterOrEqual" value="47.0000000000000000"/>
                                                    </Node>
                                                </Node>
                                            </Node>
                                        </Node>
                                    </Node>
                                </Node>
                            </TreeModel>
                        </Segment>
                        <Segment id="3" weight="1">
                            <True/>
                            <TreeModel modelName="DecisionTreeModel" functionName="regression" missingValuePenalty="1.0" noTrueChildStrategy="returnLastPrediction">
                                <MiningSchema>
                                    <MiningField name="income_bins" usageType="active"/>
                                    <MiningField name="age_bins" usageType="active"/>
                                    <MiningField name="tot_cust_years" usageType="active"/>
                                    <MiningField name="tot_children" usageType="active"/>
                                    <MiningField name="separated_ind" usageType="active"/>
                                    <MiningField name="il_resident_ind" usageType="active"/>
                                    <MiningField name="az_resident_ind" usageType="active"/>
                                    <MiningField name="oh_resident_ind" usageType="active"/>
                                    <MiningField name="ck_avg_tran_amt" usageType="active"/>
                                    <MiningField name="sv_avg_tran_amt" usageType="active"/>
                                    <MiningField name="sv_acct_ind" usageType="active"/>
                                    <MiningField name="ck_avg_bal" usageType="active"/>
                                    <MiningField name="sv_avg_bal" usageType="active"/>
                                    <MiningField name="q1_trans_cnt" usageType="active"/>
                                    <MiningField name="q2_trans_cnt" usageType="active"/>
                                    <MiningField name="q3_trans_cnt" usageType="active"/>
                                    <MiningField name="q4_trans_cnt" usageType="active"/>
                                </MiningSchema>
                                <Node>
                                    <True/>
                                    <Node>
                                        <SimplePredicate field="q4_trans_cnt" operator="lessThan" value="20.5000000000000000"/>
                                        <Node>
                                            <SimplePredicate field="q3_trans_cnt" operator="lessThan" value="4.5000000000000000"/>
                                            <Node score="-0.369621545">
                                                <SimplePredicate field="q1_trans_cnt" operator="lessThan" value="122.5000000000000000"/>
                                            </Node>
                                            <Node score="-0.0831444561">
                                                <SimplePredicate field="q1_trans_cnt" operator="greaterOrEqual" value="122.5000000000000000"/>
                                            </Node>
                                        </Node>
                                        <Node>
                                            <SimplePredicate field="q3_trans_cnt" operator="greaterOrEqual" value="4.5000000000000000"/>
                                            <Node>
                                                <SimplePredicate field="sv_acct_ind" operator="lessThan" value="1.0000000000000000"/>
                                                <Node>
                                                    <SimplePredicate field="ck_avg_tran_amt" operator="lessThan" value="-0.0503030308000000"/>
                                                    <Node score="-0.357575238">
                                                        <SimplePredicate field="q1_trans_cnt" operator="lessThan" value="58.0000000000000000"/>
                                                    </Node>
                                                    <Node score="0.292004496">
                                                        <SimplePredicate field="q1_trans_cnt" operator="greaterOrEqual" value="58.0000000000000000"/>
                                                    </Node>
                                                </Node>
                                                <Node>
                                                    <SimplePredicate field="ck_avg_tran_amt" operator="greaterOrEqual" value="-0.0503030308000000"/>
                                                    <Node score="-0.0239876639">
                                                        <SimplePredicate field="q4_trans_cnt" operator="lessThan" value="2.0000000000000000"/>
                                                    </Node>
                                                    <Node score="0.387390852">
                                                        <SimplePredicate field="q4_trans_cnt" operator="greaterOrEqual" value="2.0000000000000000"/>
                                                    </Node>
                                                </Node>
                                            </Node>
                                            <Node>
                                                <SimplePredicate field="sv_acct_ind" operator="greaterOrEqual" value="1.0000000000000000"/>
                                                <Node>
                                                    <SimplePredicate field="income_bins" operator="lessThan" value="37.0000000000000000"/>
                                                    <Node>
                                                        <SimplePredicate field="age_bins" operator="lessThan" value="8.0000000000000000"/>
                                                        <Node score="-0.386877447">
                                                            <SimplePredicate field="sv_avg_tran_amt" operator="lessThan" value="31.6255340999999994"/>
                                                        </Node>
                                                        <Node score="0.0112450011">
                                                            <SimplePredicate field="sv_avg_tran_amt" operator="greaterOrEqual" value="31.6255340999999994"/>
                                                        </Node>
                                                    </Node>
                                                    <Node score="0.0296007935">
                                                        <SimplePredicate field="age_bins" operator="greaterOrEqual" value="8.0000000000000000"/>
                                                    </Node>
                                                </Node>
                                                <Node score="0.172802418">
                                                    <SimplePredicate field="income_bins" operator="greaterOrEqual" value="37.0000000000000000"/>
                                                </Node>
                                            </Node>
                                        </Node>
                                    </Node>
                                    <Node>
                                        <SimplePredicate field="q4_trans_cnt" operator="greaterOrEqual" value="20.5000000000000000"/>
                                        <Node>
                                            <SimplePredicate field="q2_trans_cnt" operator="lessThan" value="35.0000000000000000"/>
                                            <Node>
                                                <SimplePredicate field="sv_avg_bal" operator="lessThan" value="1515.8200699999999870"/>
                                                <Node>
                                                    <SimplePredicate field="income_bins" operator="lessThan" value="2.0000000000000000"/>
                                                    <Node score="-0.217650414">
                                                        <SimplePredicate field="q1_trans_cnt" operator="lessThan" value="16.0000000000000000"/>
                                                    </Node>
                                                    <Node score="0.141514838">
                                                        <SimplePredicate field="q1_trans_cnt" operator="greaterOrEqual" value="16.0000000000000000"/>
                                                    </Node>
                                                </Node>
                                                <Node>
                                                    <SimplePredicate field="income_bins" operator="greaterOrEqual" value="2.0000000000000000"/>
                                                    <Node score="0.384001076">
                                                        <SimplePredicate field="ck_avg_bal" operator="lessThan" value="270.0692139999999881"/>
                                                    </Node>
                                                    <Node>
                                                        <SimplePredicate field="ck_avg_bal" operator="greaterOrEqual" value="270.0692139999999881"/>
                                                        <Node score="-0.0735386163">
                                                            <SimplePredicate field="ck_avg_bal" operator="lessThan" value="578.0495610000000397"/>
                                                        </Node>
                                                        <Node score="0.259016156">
                                                            <SimplePredicate field="ck_avg_bal" operator="greaterOrEqual" value="578.0495610000000397"/>
                                                        </Node>
                                                    </Node>
                                                </Node>
                                            </Node>
                                            <Node>
                                                <SimplePredicate field="sv_avg_bal" operator="greaterOrEqual" value="1515.8200699999999870"/>
                                                <Node score="-0.286210924">
                                                    <SimplePredicate field="tot_cust_years" operator="lessThan" value="4.0000000000000000"/>
                                                </Node>
                                                <Node score="0.000216133427">
                                                    <SimplePredicate field="tot_cust_years" operator="greaterOrEqual" value="4.0000000000000000"/>
                                                </Node>
                                            </Node>
                                        </Node>
                                        <Node>
                                            <SimplePredicate field="q2_trans_cnt" operator="greaterOrEqual" value="35.0000000000000000"/>
                                            <Node>
                                                <SimplePredicate field="q1_trans_cnt" operator="lessThan" value="35.0000000000000000"/>
                                                <Node score="0.333676577">
                                                    <SimplePredicate field="ck_avg_tran_amt" operator="lessThan" value="-0.8539240360000000"/>
                                                </Node>
                                                <Node score="-0.0473914631">
                                                    <SimplePredicate field="ck_avg_tran_amt" operator="greaterOrEqual" value="-0.8539240360000000"/>
                                                </Node>
                                            </Node>
                                            <Node>
                                                <SimplePredicate field="q1_trans_cnt" operator="greaterOrEqual" value="35.0000000000000000"/>
                                                <Node score="0.113799728">
                                                    <SimplePredicate field="ck_avg_bal" operator="lessThan" value="126.5780029999999954"/>
                                                </Node>
                                                <Node score="0.397424847">
                                                    <SimplePredicate field="ck_avg_bal" operator="greaterOrEqual" value="126.5780029999999954"/>
                                                </Node>
                                            </Node>
                                        </Node>
                                    </Node>
                                </Node>
                            </TreeModel>
                        </Segment>
                        <Segment id="4" weight="1">
                            <True/>
                            <TreeModel modelName="DecisionTreeModel" functionName="regression" missingValuePenalty="1.0" noTrueChildStrategy="returnLastPrediction">
                                <MiningSchema>
                                    <MiningField name="income_bins" usageType="active"/>
                                    <MiningField name="age_bins" usageType="active"/>
                                    <MiningField name="tot_cust_years" usageType="active"/>
                                    <MiningField name="tot_children" usageType="active"/>
                                    <MiningField name="separated_ind" usageType="active"/>
                                    <MiningField name="il_resident_ind" usageType="active"/>
                                    <MiningField name="az_resident_ind" usageType="active"/>
                                    <MiningField name="oh_resident_ind" usageType="active"/>
                                    <MiningField name="ck_avg_tran_amt" usageType="active"/>
                                    <MiningField name="sv_avg_tran_amt" usageType="active"/>
                                    <MiningField name="sv_acct_ind" usageType="active"/>
                                    <MiningField name="ck_avg_bal" usageType="active"/>
                                    <MiningField name="sv_avg_bal" usageType="active"/>
                                    <MiningField name="q1_trans_cnt" usageType="active"/>
                                    <MiningField name="q2_trans_cnt" usageType="active"/>
                                    <MiningField name="q3_trans_cnt" usageType="active"/>
                                    <MiningField name="q4_trans_cnt" usageType="active"/>
                                </MiningSchema>
                                <Node>
                                    <True/>
                                    <Node>
                                        <SimplePredicate field="q4_trans_cnt" operator="lessThan" value="20.5000000000000000"/>
                                        <Node>
                                            <SimplePredicate field="q3_trans_cnt" operator="lessThan" value="4.5000000000000000"/>
                                            <Node score="-0.331796408">
                                                <SimplePredicate field="income_bins" operator="lessThan" value="35.0000000000000000"/>
                                            </Node>
                                            <Node score="-0.0760117844">
                                                <SimplePredicate field="income_bins" operator="greaterOrEqual" value="35.0000000000000000"/>
                                            </Node>
                                        </Node>
                                        <Node>
                                            <SimplePredicate field="q3_trans_cnt" operator="greaterOrEqual" value="4.5000000000000000"/>
                                            <Node>
                                                <SimplePredicate field="sv_acct_ind" operator="lessThan" value="1.0000000000000000"/>
                                                <Node>
                                                    <SimplePredicate field="q3_trans_cnt" operator="lessThan" value="23.0000000000000000"/>
                                                    <Node score="-0.0482471101">
                                                        <SimplePredicate field="ck_avg_tran_amt" operator="lessThan" value="-3.1267025500000001"/>
                                                    </Node>
                                                    <Node>
                                                        <SimplePredicate field="ck_avg_tran_amt" operator="greaterOrEqual" value="-3.1267025500000001"/>
                                                        <Node score="0.0861696303">
                                                            <SimplePredicate field="tot_cust_years" operator="lessThan" value="3.0000000000000000"/>
                                                        </Node>
                                                        <Node score="0.338257939">
                                                            <SimplePredicate field="tot_cust_years" operator="greaterOrEqual" value="3.0000000000000000"/>
                                                        </Node>
                                                    </Node>
                                                </Node>
                                                <Node score="-0.175967455">
                                                    <SimplePredicate field="q3_trans_cnt" operator="greaterOrEqual" value="23.0000000000000000"/>
                                                </Node>
                                            </Node>
                                            <Node>
                                                <SimplePredicate field="sv_acct_ind" operator="greaterOrEqual" value="1.0000000000000000"/>
                                                <Node>
                                                    <SimplePredicate field="income_bins" operator="lessThan" value="37.0000000000000000"/>
                                                    <Node>
                                                        <SimplePredicate field="q2_trans_cnt" operator="lessThan" value="94.0000000000000000"/>
                                                        <Node score="-0.329078704">
                                                            <SimplePredicate field="sv_avg_tran_amt" operator="lessThan" value="31.6255340999999994"/>
                                                        </Node>
                                                        <Node score="0.00945855491">
                                                            <SimplePredicate field="sv_avg_tran_amt" operator="greaterOrEqual" value="31.6255340999999994"/>
                                                        </Node>
                                                    </Node>
                                                    <Node score="0.0493575782">
                                                        <SimplePredicate field="q2_trans_cnt" operator="greaterOrEqual" value="94.0000000000000000"/>
                                                    </Node>
                                                </Node>
                                                <Node score="0.141372368">
                                                    <SimplePredicate field="income_bins" operator="greaterOrEqual" value="37.0000000000000000"/>
                                                </Node>
                                            </Node>
                                        </Node>
                                    </Node>
                                    <Node>
                                        <SimplePredicate field="q4_trans_cnt" operator="greaterOrEqual" value="20.5000000000000000"/>
                                        <Node>
                                            <SimplePredicate field="q3_trans_cnt" operator="lessThan" value="29.0000000000000000"/>
                                            <Node>
                                                <SimplePredicate field="sv_avg_bal" operator="lessThan" value="414.4353029999999762"/>
                                                <Node>
                                                    <SimplePredicate field="q1_trans_cnt" operator="lessThan" value="23.5000000000000000"/>
                                                    <Node score="0.323662311">
                                                        <SimplePredicate field="ck_avg_bal" operator="lessThan" value="219.5316469999999924"/>
                                                    </Node>
                                                    <Node>
                                                        <SimplePredicate field="ck_avg_bal" operator="greaterOrEqual" value="219.5316469999999924"/>
                                                        <Node score="0.060437385">
                                                            <SimplePredicate field="ck_avg_tran_amt" operator="lessThan" value="-5.0944318800000001"/>
                                                        </Node>
                                                        <Node score="-0.351565719">
                                                            <SimplePredicate field="ck_avg_tran_amt" operator="greaterOrEqual" value="-5.0944318800000001"/>
                                                        </Node>
                                                    </Node>
                                                </Node>
                                                <Node score="0.300874114">
                                                    <SimplePredicate field="q1_trans_cnt" operator="greaterOrEqual" value="23.5000000000000000"/>
                                                </Node>
                                            </Node>
                                            <Node>
                                                <SimplePredicate field="sv_avg_bal" operator="greaterOrEqual" value="414.4353029999999762"/>
                                                <Node score="-0.300633311">
                                                    <SimplePredicate field="income_bins" operator="lessThan" value="14.0000000000000000"/>
                                                </Node>
                                                <Node>
                                                    <SimplePredicate field="income_bins" operator="greaterOrEqual" value="14.0000000000000000"/>
                                                    <Node score="0.251526296">
                                                        <SimplePredicate field="sv_avg_tran_amt" operator="lessThan" value="0.1472034750000000"/>
                                                    </Node>
                                                    <Node score="-0.0918628126">
                                                        <SimplePredicate field="sv_avg_tran_amt" operator="greaterOrEqual" value="0.1472034750000000"/>
                                                    </Node>
                                                </Node>
                                            </Node>
                                        </Node>
                                        <Node>
                                            <SimplePredicate field="q3_trans_cnt" operator="greaterOrEqual" value="29.0000000000000000"/>
                                            <Node score="0.0155178038">
                                                <SimplePredicate field="q4_trans_cnt" operator="lessThan" value="25.0000000000000000"/>
                                            </Node>
                                            <Node>
                                                <SimplePredicate field="q4_trans_cnt" operator="greaterOrEqual" value="25.0000000000000000"/>
                                                <Node>
                                                    <SimplePredicate field="sv_avg_bal" operator="lessThan" value="1697.8814700000000357"/>
                                                    <Node score="0.112212382">
                                                        <SimplePredicate field="q2_trans_cnt" operator="lessThan" value="15.0000000000000000"/>
                                                    </Node>
                                                    <Node score="0.358979404">
                                                        <SimplePredicate field="q2_trans_cnt" operator="greaterOrEqual" value="15.0000000000000000"/>
                                                    </Node>
                                                </Node>
                                                <Node>
                                                    <SimplePredicate field="sv_avg_bal" operator="greaterOrEqual" value="1697.8814700000000357"/>
                                                    <Node score="-0.125236675">
                                                        <SimplePredicate field="income_bins" operator="lessThan" value="22.0000000000000000"/>
                                                    </Node>
                                                    <Node score="0.286311388">
                                                        <SimplePredicate field="income_bins" operator="greaterOrEqual" value="22.0000000000000000"/>
                                                    </Node>
                                                </Node>
                                            </Node>
                                        </Node>
                                    </Node>
                                </Node>
                            </TreeModel>
                        </Segment>
                        <Segment id="5" weight="1">
                            <True/>
                            <TreeModel modelName="DecisionTreeModel" functionName="regression" missingValuePenalty="1.0" noTrueChildStrategy="returnLastPrediction">
                                <MiningSchema>
                                    <MiningField name="income_bins" usageType="active"/>
                                    <MiningField name="age_bins" usageType="active"/>
                                    <MiningField name="tot_cust_years" usageType="active"/>
                                    <MiningField name="tot_children" usageType="active"/>
                                    <MiningField name="separated_ind" usageType="active"/>
                                    <MiningField name="il_resident_ind" usageType="active"/>
                                    <MiningField name="az_resident_ind" usageType="active"/>
                                    <MiningField name="oh_resident_ind" usageType="active"/>
                                    <MiningField name="ck_avg_tran_amt" usageType="active"/>
                                    <MiningField name="sv_avg_tran_amt" usageType="active"/>
                                    <MiningField name="sv_acct_ind" usageType="active"/>
                                    <MiningField name="ck_avg_bal" usageType="active"/>
                                    <MiningField name="sv_avg_bal" usageType="active"/>
                                    <MiningField name="q1_trans_cnt" usageType="active"/>
                                    <MiningField name="q2_trans_cnt" usageType="active"/>
                                    <MiningField name="q3_trans_cnt" usageType="active"/>
                                    <MiningField name="q4_trans_cnt" usageType="active"/>
                                </MiningSchema>
                                <Node>
                                    <True/>
                                    <Node>
                                        <SimplePredicate field="q3_trans_cnt" operator="lessThan" value="11.5000000000000000"/>
                                        <Node>
                                            <SimplePredicate field="q4_trans_cnt" operator="lessThan" value="6.5000000000000000"/>
                                            <Node score="-0.319166958">
                                                <SimplePredicate field="q1_trans_cnt" operator="lessThan" value="157.0000000000000000"/>
                                            </Node>
                                            <Node score="0.0809238404">
                                                <SimplePredicate field="q1_trans_cnt" operator="greaterOrEqual" value="157.0000000000000000"/>
                                            </Node>
                                        </Node>
                                        <Node>
                                            <SimplePredicate field="q4_trans_cnt" operator="greaterOrEqual" value="6.5000000000000000"/>
                                            <Node score="0.280949444">
                                                <SimplePredicate field="q3_trans_cnt" operator="lessThan" value="1.5000000000000000"/>
                                            </Node>
                                            <Node>
                                                <SimplePredicate field="q3_trans_cnt" operator="greaterOrEqual" value="1.5000000000000000"/>
                                                <Node>
                                                    <SimplePredicate field="income_bins" operator="lessThan" value="19.0000000000000000"/>
                                                    <Node score="0.00358938891">
                                                        <SimplePredicate field="q4_trans_cnt" operator="lessThan" value="11.0000000000000000"/>
                                                    </Node>
                                                    <Node>
                                                        <SimplePredicate field="q4_trans_cnt" operator="greaterOrEqual" value="11.0000000000000000"/>
                                                        <Node score="-0.326330066">
                                                            <SimplePredicate field="age_bins" operator="lessThan" value="5.0000000000000000"/>
                                                        </Node>
                                                        <Node score="-0.0613852032">
                                                            <SimplePredicate field="age_bins" operator="greaterOrEqual" value="5.0000000000000000"/>
                                                        </Node>
                                                    </Node>
                                                </Node>
                                                <Node>
                                                    <SimplePredicate field="income_bins" operator="greaterOrEqual" value="19.0000000000000000"/>
                                                    <Node score="0.159144312">
                                                        <SimplePredicate field="sv_avg_bal" operator="lessThan" value="876.1403199999999742"/>
                                                    </Node>
                                                    <Node score="0.0159821678">
                                                        <SimplePredicate field="sv_avg_bal" operator="greaterOrEqual" value="876.1403199999999742"/>
                                                    </Node>
                                                </Node>
                                            </Node>
                                        </Node>
                                    </Node>
                                    <Node>
                                        <SimplePredicate field="q3_trans_cnt" operator="greaterOrEqual" value="11.5000000000000000"/>
                                        <Node>
                                            <SimplePredicate field="q4_trans_cnt" operator="lessThan" value="24.5000000000000000"/>
                                            <Node>
                                                <SimplePredicate field="ck_avg_bal" operator="lessThan" value="58.4912795999999986"/>
                                                <Node score="0.311831713">
                                                    <SimplePredicate field="sv_avg_bal" operator="lessThan" value="786.3669429999999920"/>
                                                </Node>
                                                <Node score="0.0627666786">
                                                    <SimplePredicate field="sv_avg_bal" operator="greaterOrEqual" value="786.3669429999999920"/>
                                                </Node>
                                            </Node>
                                            <Node>
                                                <SimplePredicate field="ck_avg_bal" operator="greaterOrEqual" value="58.4912795999999986"/>
                                                <Node>
                                                    <SimplePredicate field="q1_trans_cnt" operator="lessThan" value="103.5000000000000000"/>
                                                    <Node score="-0.343355954">
                                                        <SimplePredicate field="q1_trans_cnt" operator="lessThan" value="46.0000000000000000"/>
                                                    </Node>
                                                    <Node score="-0.0828457624">
                                                        <SimplePredicate field="q1_trans_cnt" operator="greaterOrEqual" value="46.0000000000000000"/>
                                                    </Node>
                                                </Node>
                                                <Node>
                                                    <SimplePredicate field="q1_trans_cnt" operator="greaterOrEqual" value="103.5000000000000000"/>
                                                    <Node score="0.303625047">
                                                        <SimplePredicate field="sv_acct_ind" operator="lessThan" value="1.0000000000000000"/>
                                                    </Node>
                                                    <Node>
                                                        <SimplePredicate field="sv_acct_ind" operator="greaterOrEqual" value="1.0000000000000000"/>
                                                        <Node score="-0.260461539">
                                                            <SimplePredicate field="q2_trans_cnt" operator="lessThan" value="102.0000000000000000"/>
                                                        </Node>
                                                        <Node score="0.287682801">
                                                            <SimplePredicate field="q2_trans_cnt" operator="greaterOrEqual" value="102.0000000000000000"/>
                                                        </Node>
                                                    </Node>
                                                </Node>
                                            </Node>
                                        </Node>
                                        <Node>
                                            <SimplePredicate field="q4_trans_cnt" operator="greaterOrEqual" value="24.5000000000000000"/>
                                            <Node>
                                                <SimplePredicate field="q1_trans_cnt" operator="lessThan" value="46.0000000000000000"/>
                                                <Node>
                                                    <SimplePredicate field="q4_trans_cnt" operator="lessThan" value="55.5000000000000000"/>
                                                    <Node>
                                                        <SimplePredicate field="tot_cust_years" operator="lessThan" value="3.0000000000000000"/>
                                                        <Node score="0.0341190174">
                                                            <SimplePredicate field="ck_avg_bal" operator="lessThan" value="255.8281859999999881"/>
                                                        </Node>
                                                        <Node score="-0.229379326">
                                                            <SimplePredicate field="ck_avg_bal" operator="greaterOrEqual" value="255.8281859999999881"/>
                                                        </Node>
                                                    </Node>
                                                    <Node score="0.219056025">
                                                        <SimplePredicate field="tot_cust_years" operator="greaterOrEqual" value="3.0000000000000000"/>
                                                    </Node>
                                                </Node>
                                                <Node>
                                                    <SimplePredicate field="q4_trans_cnt" operator="greaterOrEqual" value="55.5000000000000000"/>
                                                    <Node score="0.0570120141">
                                                        <SimplePredicate field="q1_trans_cnt" operator="lessThan" value="8.5000000000000000"/>
                                                    </Node>
                                                    <Node>
                                                        <SimplePredicate field="q1_trans_cnt" operator="greaterOrEqual" value="8.5000000000000000"/>
                                                        <Node score="0.322300732">
                                                            <SimplePredicate field="sv_avg_bal" operator="lessThan" value="1407.2867400000000089"/>
                                                        </Node>
                                                        <Node score="0.0695087463">
                                                            <SimplePredicate field="sv_avg_bal" operator="greaterOrEqual" value="1407.2867400000000089"/>
                                                        </Node>
                                                    </Node>
                                                </Node>
                                            </Node>
                                            <Node>
                                                <SimplePredicate field="q1_trans_cnt" operator="greaterOrEqual" value="46.0000000000000000"/>
                                                <Node score="0.0591712929">
                                                    <SimplePredicate field="q3_trans_cnt" operator="lessThan" value="19.0000000000000000"/>
                                                </Node>
                                                <Node score="0.33946234">
                                                    <SimplePredicate field="q3_trans_cnt" operator="greaterOrEqual" value="19.0000000000000000"/>
                                                </Node>
                                            </Node>
                                        </Node>
                                    </Node>
                                </Node>
                            </TreeModel>
                        </Segment>
                        <Segment id="6" weight="1">
                            <True/>
                            <TreeModel modelName="DecisionTreeModel" functionName="regression" missingValuePenalty="1.0" noTrueChildStrategy="returnLastPrediction">
                                <MiningSchema>
                                    <MiningField name="income_bins" usageType="active"/>
                                    <MiningField name="age_bins" usageType="active"/>
                                    <MiningField name="tot_cust_years" usageType="active"/>
                                    <MiningField name="tot_children" usageType="active"/>
                                    <MiningField name="separated_ind" usageType="active"/>
                                    <MiningField name="il_resident_ind" usageType="active"/>
                                    <MiningField name="az_resident_ind" usageType="active"/>
                                    <MiningField name="oh_resident_ind" usageType="active"/>
                                    <MiningField name="ck_avg_tran_amt" usageType="active"/>
                                    <MiningField name="sv_avg_tran_amt" usageType="active"/>
                                    <MiningField name="sv_acct_ind" usageType="active"/>
                                    <MiningField name="ck_avg_bal" usageType="active"/>
                                    <MiningField name="sv_avg_bal" usageType="active"/>
                                    <MiningField name="q1_trans_cnt" usageType="active"/>
                                    <MiningField name="q2_trans_cnt" usageType="active"/>
                                    <MiningField name="q3_trans_cnt" usageType="active"/>
                                    <MiningField name="q4_trans_cnt" usageType="active"/>
                                </MiningSchema>
                                <Node>
                                    <True/>
                                    <Node>
                                        <SimplePredicate field="q4_trans_cnt" operator="lessThan" value="11.5000000000000000"/>
                                        <Node>
                                            <SimplePredicate field="q1_trans_cnt" operator="lessThan" value="149.5000000000000000"/>
                                            <Node score="-0.313675016">
                                                <SimplePredicate field="q4_trans_cnt" operator="lessThan" value="3.5000000000000000"/>
                                            </Node>
                                            <Node>
                                                <SimplePredicate field="q4_trans_cnt" operator="greaterOrEqual" value="3.5000000000000000"/>
                                                <Node>
                                                    <SimplePredicate field="sv_avg_bal" operator="lessThan" value="526.0541990000000396"/>
                                                    <Node score="0.203410491">
                                                        <SimplePredicate field="q3_trans_cnt" operator="lessThan" value="12.0000000000000000"/>
                                                    </Node>
                                                    <Node score="-0.041614458">
                                                        <SimplePredicate field="q3_trans_cnt" operator="greaterOrEqual" value="12.0000000000000000"/>
                                                    </Node>
                                                </Node>
                                                <Node score="-0.26550886">
                                                    <SimplePredicate field="sv_avg_bal" operator="greaterOrEqual" value="526.0541990000000396"/>
                                                </Node>
                                            </Node>
                                        </Node>
                                        <Node>
                                            <SimplePredicate field="q1_trans_cnt" operator="greaterOrEqual" value="149.5000000000000000"/>
                                            <Node score="-0.0543538965">
                                                <SimplePredicate field="q2_trans_cnt" operator="lessThan" value="26.0000000000000000"/>
                                            </Node>
                                            <Node score="0.24147819">
                                                <SimplePredicate field="q2_trans_cnt" operator="greaterOrEqual" value="26.0000000000000000"/>
                                            </Node>
                                        </Node>
                                    </Node>
                                    <Node>
                                        <SimplePredicate field="q4_trans_cnt" operator="greaterOrEqual" value="11.5000000000000000"/>
                                        <Node>
                                            <SimplePredicate field="q2_trans_cnt" operator="lessThan" value="35.0000000000000000"/>
                                            <Node>
                                                <SimplePredicate field="sv_avg_bal" operator="lessThan" value="274.4354250000000093"/>
                                                <Node>
                                                    <SimplePredicate field="ck_avg_bal" operator="lessThan" value="2328.3491199999998571"/>
                                                    <Node>
                                                        <SimplePredicate field="income_bins" operator="lessThan" value="6.0000000000000000"/>
                                                        <Node score="-0.115194142">
                                                            <SimplePredicate field="q2_trans_cnt" operator="lessThan" value="17.0000000000000000"/>
                                                        </Node>
                                                        <Node score="0.112219945">
                                                            <SimplePredicate field="q2_trans_cnt" operator="greaterOrEqual" value="17.0000000000000000"/>
                                                        </Node>
                                                    </Node>
                                                    <Node>
                                                        <SimplePredicate field="income_bins" operator="greaterOrEqual" value="6.0000000000000000"/>
                                                        <Node score="0.0938078314">
                                                            <SimplePredicate field="q1_trans_cnt" operator="lessThan" value="4.5000000000000000"/>
                                                        </Node>
                                                        <Node score="0.306257039">
                                                            <SimplePredicate field="q1_trans_cnt" operator="greaterOrEqual" value="4.5000000000000000"/>
                                                        </Node>
                                                    </Node>
                                                </Node>
                                                <Node score="-0.0721229687">
                                                    <SimplePredicate field="ck_avg_bal" operator="greaterOrEqual" value="2328.3491199999998571"/>
                                                </Node>
                                            </Node>
                                            <Node>
                                                <SimplePredicate field="sv_avg_bal" operator="greaterOrEqual" value="274.4354250000000093"/>
                                                <Node>
                                                    <SimplePredicate field="ck_avg_bal" operator="lessThan" value="138.2945400000000120"/>
                                                    <Node score="-0.222374842">
                                                        <SimplePredicate field="q1_trans_cnt" operator="lessThan" value="5.5000000000000000"/>
                                                    </Node>
                                                    <Node>
                                                        <SimplePredicate field="q1_trans_cnt" operator="greaterOrEqual" value="5.5000000000000000"/>
                                                        <Node score="0.025625743">
                                                            <SimplePredicate field="q4_trans_cnt" operator="lessThan" value="16.5000000000000000"/>
                                                        </Node>
                                                        <Node score="0.302416563">
                                                            <SimplePredicate field="q4_trans_cnt" operator="greaterOrEqual" value="16.5000000000000000"/>
                                                        </Node>
                                                    </Node>
                                                </Node>
                                                <Node>
                                                    <SimplePredicate field="ck_avg_bal" operator="greaterOrEqual" value="138.2945400000000120"/>
                                                    <Node>
                                                        <SimplePredicate field="q3_trans_cnt" operator="lessThan" value="51.5000000000000000"/>
                                                        <Node score="-0.309525013">
                                                            <SimplePredicate field="ck_avg_tran_amt" operator="lessThan" value="3.2720127099999998"/>
                                                        </Node>
                                                        <Node score="-0.061903879">
                                                            <SimplePredicate field="ck_avg_tran_amt" operator="greaterOrEqual" value="3.2720127099999998"/>
                                                        </Node>
                                                    </Node>
                                                    <Node score="0.0910042375">
                                                        <SimplePredicate field="q3_trans_cnt" operator="greaterOrEqual" value="51.5000000000000000"/>
                                                    </Node>
                                                </Node>
                                            </Node>
                                        </Node>
                                        <Node>
                                            <SimplePredicate field="q2_trans_cnt" operator="greaterOrEqual" value="35.0000000000000000"/>
                                            <Node>
                                                <SimplePredicate field="q4_trans_cnt" operator="lessThan" value="25.0000000000000000"/>
                                                <Node>
                                                    <SimplePredicate field="q1_trans_cnt" operator="lessThan" value="140.0000000000000000"/>
                                                    <Node score="0.0855671614">
                                                        <SimplePredicate field="q1_trans_cnt" operator="lessThan" value="75.0000000000000000"/>
                                                    </Node>
                                                    <Node score="-0.161365256">
                                                        <SimplePredicate field="q1_trans_cnt" operator="greaterOrEqual" value="75.0000000000000000"/>
                                                    </Node>
                                                </Node>
                                                <Node score="0.239250138">
                                                    <SimplePredicate field="q1_trans_cnt" operator="greaterOrEqual" value="140.0000000000000000"/>
                                                </Node>
                                            </Node>
                                            <Node>
                                                <SimplePredicate field="q4_trans_cnt" operator="greaterOrEqual" value="25.0000000000000000"/>
                                                <Node>
                                                    <SimplePredicate field="q1_trans_cnt" operator="lessThan" value="35.0000000000000000"/>
                                                    <Node score="0.251919031">
                                                        <SimplePredicate field="sv_avg_tran_amt" operator="lessThan" value="-0.8539240360000000"/>
                                                    </Node>
                                                    <Node score="-0.0596086793">
                                                        <SimplePredicate field="sv_avg_tran_amt" operator="greaterOrEqual" value="-0.8539240360000000"/>
                                                    </Node>
                                                </Node>
                                                <Node score="0.321674407">
                                                    <SimplePredicate field="q1_trans_cnt" operator="greaterOrEqual" value="35.0000000000000000"/>
                                                </Node>
                                            </Node>
                                        </Node>
                                    </Node>
                                </Node>
                            </TreeModel>
                        </Segment>
                        <Segment id="7" weight="1">
                            <True/>
                            <TreeModel modelName="DecisionTreeModel" functionName="regression" missingValuePenalty="1.0" noTrueChildStrategy="returnLastPrediction">
                                <MiningSchema>
                                    <MiningField name="income_bins" usageType="active"/>
                                    <MiningField name="age_bins" usageType="active"/>
                                    <MiningField name="tot_cust_years" usageType="active"/>
                                    <MiningField name="tot_children" usageType="active"/>
                                    <MiningField name="separated_ind" usageType="active"/>
                                    <MiningField name="il_resident_ind" usageType="active"/>
                                    <MiningField name="az_resident_ind" usageType="active"/>
                                    <MiningField name="oh_resident_ind" usageType="active"/>
                                    <MiningField name="ck_avg_tran_amt" usageType="active"/>
                                    <MiningField name="sv_avg_tran_amt" usageType="active"/>
                                    <MiningField name="sv_acct_ind" usageType="active"/>
                                    <MiningField name="ck_avg_bal" usageType="active"/>
                                    <MiningField name="sv_avg_bal" usageType="active"/>
                                    <MiningField name="q1_trans_cnt" usageType="active"/>
                                    <MiningField name="q2_trans_cnt" usageType="active"/>
                                    <MiningField name="q3_trans_cnt" usageType="active"/>
                                    <MiningField name="q4_trans_cnt" usageType="active"/>
                                </MiningSchema>
                                <Node>
                                    <True/>
                                    <Node>
                                        <SimplePredicate field="q3_trans_cnt" operator="lessThan" value="11.5000000000000000"/>
                                        <Node>
                                            <SimplePredicate field="q4_trans_cnt" operator="lessThan" value="6.5000000000000000"/>
                                            <Node>
                                                <SimplePredicate field="q1_trans_cnt" operator="lessThan" value="157.0000000000000000"/>
                                                <Node score="-0.292965144">
                                                    <SimplePredicate field="q4_trans_cnt" operator="lessThan" value="4.5000000000000000"/>
                                                </Node>
                                                <Node score="-0.0883213133">
                                                    <SimplePredicate field="q4_trans_cnt" operator="greaterOrEqual" value="4.5000000000000000"/>
                                                </Node>
                                            </Node>
                                            <Node score="0.0562176555">
                                                <SimplePredicate field="q1_trans_cnt" operator="greaterOrEqual" value="157.0000000000000000"/>
                                            </Node>
                                        </Node>
                                        <Node>
                                            <SimplePredicate field="q4_trans_cnt" operator="greaterOrEqual" value="6.5000000000000000"/>
                                            <Node score="0.238939628">
                                                <SimplePredicate field="q3_trans_cnt" operator="lessThan" value="1.5000000000000000"/>
                                            </Node>
                                            <Node>
                                                <SimplePredicate field="q3_trans_cnt" operator="greaterOrEqual" value="1.5000000000000000"/>
                                                <Node>
                                                    <SimplePredicate field="income_bins" operator="lessThan" value="19.0000000000000000"/>
                                                    <Node score="0.0137714641">
                                                        <SimplePredicate field="q4_trans_cnt" operator="lessThan" value="11.0000000000000000"/>
                                                    </Node>
                                                    <Node>
                                                        <SimplePredicate field="q4_trans_cnt" operator="greaterOrEqual" value="11.0000000000000000"/>
                                                        <Node score="-0.293702662">
                                                            <SimplePredicate field="tot_cust_years" operator="lessThan" value="3.0000000000000000"/>
                                                        </Node>
                                                        <Node score="-0.0757310092">
                                                            <SimplePredicate field="tot_cust_years" operator="greaterOrEqual" value="3.0000000000000000"/>
                                                        </Node>
                                                    </Node>
                                                </Node>
                                                <Node score="0.0945016965">
                                                    <SimplePredicate field="income_bins" operator="greaterOrEqual" value="19.0000000000000000"/>
                                                </Node>
                                            </Node>
                                        </Node>
                                    </Node>
                                    <Node>
                                        <SimplePredicate field="q3_trans_cnt" operator="greaterOrEqual" value="11.5000000000000000"/>
                                        <Node>
                                            <SimplePredicate field="q4_trans_cnt" operator="lessThan" value="55.5000000000000000"/>
                                            <Node>
                                                <SimplePredicate field="q1_trans_cnt" operator="lessThan" value="46.0000000000000000"/>
                                                <Node>
                                                    <SimplePredicate field="ck_avg_bal" operator="lessThan" value="76.7500000000000000"/>
                                                    <Node score="0.0414110124">
                                                        <SimplePredicate field="q4_trans_cnt" operator="lessThan" value="13.5000000000000000"/>
                                                    </Node>
                                                    <Node score="0.253955662">
                                                        <SimplePredicate field="q4_trans_cnt" operator="greaterOrEqual" value="13.5000000000000000"/>
                                                    </Node>
                                                </Node>
                                                <Node>
                                                    <SimplePredicate field="ck_avg_bal" operator="greaterOrEqual" value="76.7500000000000000"/>
                                                    <Node score="-0.317484796">
                                                        <SimplePredicate field="tot_children" operator="lessThan" value="2.0000000000000000"/>
                                                    </Node>
                                                    <Node score="0.115137793">
                                                        <SimplePredicate field="tot_children" operator="greaterOrEqual" value="2.0000000000000000"/>
                                                    </Node>
                                                </Node>
                                            </Node>
                                            <Node>
                                                <SimplePredicate field="q1_trans_cnt" operator="greaterOrEqual" value="46.0000000000000000"/>
                                                <Node score="0.29917556">
                                                    <SimplePredicate field="sv_acct_ind" operator="lessThan" value="1.0000000000000000"/>
                                                </Node>
                                                <Node>
                                                    <SimplePredicate field="sv_acct_ind" operator="greaterOrEqual" value="1.0000000000000000"/>
                                                    <Node>
                                                        <SimplePredicate field="q3_trans_cnt" operator="lessThan" value="26.5000000000000000"/>
                                                        <Node score="-0.211780906">
                                                            <SimplePredicate field="sv_avg_tran_amt" operator="lessThan" value="3.2720127099999998"/>
                                                        </Node>
                                                        <Node score="0.00854035933">
                                                            <SimplePredicate field="sv_avg_tran_amt" operator="greaterOrEqual" value="3.2720127099999998"/>
                                                        </Node>
                                                    </Node>
                                                    <Node>
                                                        <SimplePredicate field="q3_trans_cnt" operator="greaterOrEqual" value="26.5000000000000000"/>
                                                        <Node score="-0.0870135278">
                                                            <SimplePredicate field="q1_trans_cnt" operator="lessThan" value="99.0000000000000000"/>
                                                        </Node>
                                                        <Node score="0.25575316">
                                                            <SimplePredicate field="q1_trans_cnt" operator="greaterOrEqual" value="99.0000000000000000"/>
                                                        </Node>
                                                    </Node>
                                                </Node>
                                            </Node>
                                        </Node>
                                        <Node>
                                            <SimplePredicate field="q4_trans_cnt" operator="greaterOrEqual" value="55.5000000000000000"/>
                                            <Node score="0.0258076806">
                                                <SimplePredicate field="q1_trans_cnt" operator="lessThan" value="8.5000000000000000"/>
                                            </Node>
                                            <Node>
                                                <SimplePredicate field="q1_trans_cnt" operator="greaterOrEqual" value="8.5000000000000000"/>
                                                <Node score="0.315464765">
                                                    <SimplePredicate field="tot_children" operator="lessThan" value="3.0000000000000000"/>
                                                </Node>
                                                <Node score="0.0701738894">
                                                    <SimplePredicate field="tot_children" operator="greaterOrEqual" value="3.0000000000000000"/>
                                                </Node>
                                            </Node>
                                        </Node>
                                    </Node>
                                </Node>
                            </TreeModel>
                        </Segment>
                        <Segment id="8" weight="1">
                            <True/>
                            <TreeModel modelName="DecisionTreeModel" functionName="regression" missingValuePenalty="1.0" noTrueChildStrategy="returnLastPrediction">
                                <MiningSchema>
                                    <MiningField name="income_bins" usageType="active"/>
                                    <MiningField name="age_bins" usageType="active"/>
                                    <MiningField name="tot_cust_years" usageType="active"/>
                                    <MiningField name="tot_children" usageType="active"/>
                                    <MiningField name="separated_ind" usageType="active"/>
                                    <MiningField name="il_resident_ind" usageType="active"/>
                                    <MiningField name="az_resident_ind" usageType="active"/>
                                    <MiningField name="oh_resident_ind" usageType="active"/>
                                    <MiningField name="ck_avg_tran_amt" usageType="active"/>
                                    <MiningField name="sv_avg_tran_amt" usageType="active"/>
                                    <MiningField name="sv_acct_ind" usageType="active"/>
                                    <MiningField name="ck_avg_bal" usageType="active"/>
                                    <MiningField name="sv_avg_bal" usageType="active"/>
                                    <MiningField name="q1_trans_cnt" usageType="active"/>
                                    <MiningField name="q2_trans_cnt" usageType="active"/>
                                    <MiningField name="q3_trans_cnt" usageType="active"/>
                                    <MiningField name="q4_trans_cnt" usageType="active"/>
                                </MiningSchema>
                                <Node>
                                    <True/>
                                    <Node>
                                        <SimplePredicate field="q2_trans_cnt" operator="lessThan" value="17.0000000000000000"/>
                                        <Node>
                                            <SimplePredicate field="q4_trans_cnt" operator="lessThan" value="3.5000000000000000"/>
                                            <Node score="-0.28151083">
                                                <SimplePredicate field="q2_trans_cnt" operator="lessThan" value="1.5000000000000000"/>
                                            </Node>
                                            <Node score="-0.0834015757">
                                                <SimplePredicate field="q2_trans_cnt" operator="greaterOrEqual" value="1.5000000000000000"/>
                                            </Node>
                                        </Node>
                                        <Node>
                                            <SimplePredicate field="q4_trans_cnt" operator="greaterOrEqual" value="3.5000000000000000"/>
                                            <Node>
                                                <SimplePredicate field="sv_acct_ind" operator="lessThan" value="1.0000000000000000"/>
                                                <Node score="0.289127171">
